digraph Tree {
node [shape=box] ;
0 [label="X[12] <= 3.5\ngini = 0.4962\nsamples = 4515\nvalue = [153, 437, 878, 3047]"] ;
1 [label="X[3] <= 7.5\ngini = 0.6342\nsamples = 1411\nvalue = [75, 437, 702, 197]"] ;
0 -> 1 [labeldistance=2.5, labelangle=45, headlabel="True"] ;
2 [label="X[11] <= 5.5\ngini = 0.622\nsamples = 791\nvalue = [75, 431, 95, 190]"] ;
1 -> 2 ;
3 [label="gini = 0.0\nsamples = 116\nvalue = [0, 0, 0, 116]"] ;
2 -> 3 ;
4 [label="X[21] <= 0.5\ngini = 0.5481\nsamples = 675\nvalue = [75, 431, 95, 74]"] ;
2 -> 4 ;
5 [label="X[14] <= 0.5\ngini = 0.4923\nsamples = 169\nvalue = [0, 0, 95, 74]"] ;
4 -> 5 ;
6 [label="gini = 0.0\nsamples = 74\nvalue = [0, 0, 0, 74]"] ;
5 -> 6 ;
7 [label="gini = 0.0\nsamples = 95\nvalue = [0, 0, 95, 0]"] ;
5 -> 7 ;
8 [label="X[6] <= 1.5\ngini = 0.2525\nsamples = 506\nvalue = [75, 431, 0, 0]"] ;
4 -> 8 ;
9 [label="X[7] <= 4.5\ngini = 0.3823\nsamples = 101\nvalue = [75, 26, 0, 0]"] ;
8 -> 9 ;
10 [label="gini = 0.0\nsamples = 26\nvalue = [0, 26, 0, 0]"] ;
9 -> 10 ;
11 [label="gini = 0.0\nsamples = 75\nvalue = [75, 0, 0, 0]"] ;
9 -> 11 ;
12 [label="gini = 0.0\nsamples = 405\nvalue = [0, 405, 0, 0]"] ;
8 -> 12 ;
13 [label="X[20] <= 0.5\ngini = 0.0413\nsamples = 620\nvalue = [0, 6, 607, 7]"] ;
1 -> 13 ;
14 [label="gini = 0.0\nsamples = 607\nvalue = [0, 0, 607, 0]"] ;
13 -> 14 ;
15 [label="X[15] <= 0.5\ngini = 0.497\nsamples = 13\nvalue = [0, 6, 0, 7]"] ;
13 -> 15 ;
16 [label="gini = 0.0\nsamples = 7\nvalue = [0, 0, 0, 7]"] ;
15 -> 16 ;
17 [label="gini = 0.0\nsamples = 6\nvalue = [0, 6, 0, 0]"] ;
15 -> 17 ;
18 [label="X[21] <= 0.5\ngini = 0.1531\nsamples = 3104\nvalue = [78, 0, 176, 2850]"] ;
0 -> 18 [labeldistance=2.5, labelangle=-45, headlabel="False"] ;
19 [label="X[13] <= 5.5\ngini = 0.4988\nsamples = 370\nvalue = [0, 0, 176, 194]"] ;
18 -> 19 ;
20 [label="X[19] <= 0.5\ngini = 0.2767\nsamples = 211\nvalue = [0, 0, 176, 35]"] ;
19 -> 20 ;
21 [label="gini = 0.0\nsamples = 35\nvalue = [0, 0, 0, 35]"] ;
20 -> 21 ;
22 [label="gini = 0.0\nsamples = 176\nvalue = [0, 0, 176, 0]"] ;
20 -> 22 ;
23 [label="gini = 0.0\nsamples = 159\nvalue = [0, 0, 0, 159]"] ;
19 -> 23 ;
24 [label="X[3] <= 5.5\ngini = 0.0554\nsamples = 2734\nvalue = [78, 0, 0, 2656]"] ;
18 -> 24 ;
25 [label="gini = 0.0\nsamples = 78\nvalue = [78, 0, 0, 0]"] ;
24 -> 25 ;
26 [label="gini = 0.0\nsamples = 2656\nvalue = [0, 0, 0, 2656]"] ;
24 -> 26 ;
}